 -0.13038E+02  0.12538E+02  0.10065E+02 -0.97925E+01  0.95260E+01 -0.88864E+01 -0.95484E+01 -0.89641E+01 -0.10244E+02  0.85644E+01 -0.97404E+01  0.82471E+01 -0.83005E+01 -0.85542E+01 -0.77420E+01  0.76441E+01  0.77985E+01  0.80070E+01
  -13.3622507452298     
 -0.10767E+02  0.27379E+02  0.67988E+01 -0.96110E+01  0.12195E+02 -0.82372E+01 -0.22591E+02 -0.14644E+02 -0.33931E+02  0.75181E+01 -0.27749E+02  0.68951E+01 -0.11369E+02 -0.20736E+02 -0.68527E+01  0.76799E+01  0.11083E+02  0.14856E+02
  -343.986915741916     
 -0.81315E-01  0.43910E-01  0.10684E+00 -0.65887E-01  0.38560E-01 -0.52534E-01 -0.29581E-01 -0.27861E-01 -0.17527E-01  0.68083E-01 -0.19017E-01  0.51876E-01 -0.59338E-01 -0.25944E-01 -0.33093E-01  0.30785E-01  0.29896E-01  0.24613E-01
  0.610082053040100     
  0.15766E+03  0.17941E+03  0.15933E+03  0.19163E+03  0.20977E+03  0.19988E+03  0.22880E+03  0.23442E+03 -0.23239E+03 -0.17697E+03 -0.19681E+03 -0.27630E+03 -0.22672E+03
 -0.14348E+03 -0.10628E+03 -0.12748E+03 -0.94867E+02 -0.64974E+02 -0.77112E+02 -0.35959E+02 -0.31913E+02 -0.62550E+03 -0.55894E+03 -0.55918E+03 -0.66572E+03 -0.60424E+03
  0.00000E+00  0.00000E+00  0.00000E+00  0.00000E+00  0.00000E+00  0.00000E+00  0.00000E+00  0.00000E+00  0.00000E+00  0.00000E+00  0.00000E+00  0.00000E+00  0.00000E+00
